<?xml version="1.0"?>
<opencv_storage>
<cascade>
  <stageType>BOOST</stageType>
  <featureType>HAAR</featureType>
  <height>20</height>
  <width>20</width>
  <stageParams>
    <boostType>GAB</boostType>
    <minHitRate>9.9900001287460327e-01</minHitRate>
    <maxFalseAlarm>5.0000000745058060e-02</maxFalseAlarm>
    <weightTrimRate>9.4999999999999996e-01</weightTrimRate>
    <maxDepth>1</maxDepth>
    <maxWeakCount>100</maxWeakCount></stageParams>
  <featureParams>
    <maxCatCount>0</maxCatCount>
    <featSize>1</featSize>
    <mode>ALL</mode></featureParams>
  <stageNum>3</stageNum>
  <stages>
    <!-- stage 0 -->
    <_>
      <maxWeakCount>7</maxWeakCount>
      <stageThreshold>-4.8295781016349792e-01</stageThreshold>
      <weakClassifiers>
        <_>
          <internalNodes>
            0 -1 8 1.3580949977040291e-02</internalNodes>
          <leafValues>
            -6.6844922304153442e-01 8.5421413183212280e-01</leafValues></_>
        <_>
          <internalNodes>
            0 -1 3 3.8370818365365267e-03</internalNodes>
          <leafValues>
            -5.7358914613723755e-01 9.4994372129440308e-01</leafValues></_>
        <_>
          <internalNodes>
            0 -1 5 -1.9260253757238388e-02</internalNodes>
          <leafValues>
            7.9423856735229492e-01 -6.2850028276443481e-01</leafValues></_>
        <_>
          <internalNodes>
            0 -1 1 1.2006733566522598e-02</internalNodes>
          <leafValues>
            -9.5511293411254883e-01 5.0223779678344727e-01</leafValues></_>
        <_>
          <internalNodes>
            0 -1 9 -2.4373207241296768e-02</internalNodes>
          <leafValues>
            9.8303133249282837e-01 -4.8522499203681946e-01</leafValues></_>
        <_>
          <internalNodes>
            0 -1 6 4.0934188291430473e-03</internalNodes>
          <leafValues>
            -5.9627640247344971e-01 9.3172955513000488e-01</leafValues></_>
        <_>
          <internalNodes>
            0 -1 16 2.0196841433062218e-05</internalNodes>
          <leafValues>
            5.4410552978515625e-01 -1.</leafValues></_></weakClassifiers></_>
    <!-- stage 1 -->
    <_>
      <maxWeakCount>6</maxWeakCount>
      <stageThreshold>3.2744395732879639e-01</stageThreshold>
      <weakClassifiers>
        <_>
          <internalNodes>
            0 -1 10 4.5955958776175976e-03</internalNodes>
          <leafValues>
            -5.6022638082504272e-01 9.0825688838958740e-01</leafValues></_>
        <_>
          <internalNodes>
            0 -1 17 -3.4579090424813330e-05</internalNodes>
          <leafValues>
            -9.4364225864410400e-01 5.9448850154876709e-01</leafValues></_>
        <_>
          <internalNodes>
            0 -1 4 4.7342786565423012e-03</internalNodes>
          <leafValues>
            -5.8130317926406860e-01 8.6187750101089478e-01</leafValues></_>
        <_>
          <internalNodes>
            0 -1 13 4.4293086975812912e-03</internalNodes>
          <leafValues>
            -9.8832339048385620e-01 4.7436344623565674e-01</leafValues></_>
        <_>
          <internalNodes>
            0 -1 15 -6.4399121329188347e-03</internalNodes>
          <leafValues>
            9.8258584737777710e-01 -4.8597189784049988e-01</leafValues></_>
        <_>
          <internalNodes>
            0 -1 14 -8.6168777197599411e-03</internalNodes>
          <leafValues>
            9.9645388126373291e-01 -5.1281672716140747e-01</leafValues></_></weakClassifiers></_>
    <!-- stage 2 -->
    <_>
      <maxWeakCount>7</maxWeakCount>
      <stageThreshold>-4.2178767919540405e-01</stageThreshold>
      <weakClassifiers>
        <_>
          <internalNodes>
            0 -1 17 2.1243598894216120e-05</internalNodes>
          <leafValues>
            5.2905195951461792e-01 -1.</leafValues></_>
        <_>
          <internalNodes>
            0 -1 2 -6.0901809483766556e-03</internalNodes>
          <leafValues>
            9.4532757997512817e-01 -5.8846652507781982e-01</leafValues></_>
        <_>
          <internalNodes>
            0 -1 7 3.7752687931060791e-02</internalNodes>
          <leafValues>
            5.6912356615066528e-01 -9.0740895271301270e-01</leafValues></_>
        <_>
          <internalNodes>
            0 -1 0 -9.7295269370079041e-03</internalNodes>
          <leafValues>
            5.0995719432830811e-01 -9.1078448295593262e-01</leafValues></_>
        <_>
          <internalNodes>
            0 -1 12 -6.0670785605907440e-03</internalNodes>
          <leafValues>
            8.6122661828994751e-01 -5.2103352546691895e-01</leafValues></_>
        <_>
          <internalNodes>
            0 -1 11 4.2178961448371410e-03</internalNodes>
          <leafValues>
            -4.8243525624275208e-01 9.8100686073303223e-01</leafValues></_>
        <_>
          <internalNodes>
            0 -1 18 -4.5584350824356079e-02</internalNodes>
          <leafValues>
            9.8275655508041382e-01 -4.2389112710952759e-01</leafValues></_></weakClassifiers></_></stages>
  <features>
    <_>
      <rects>
        <_>
          0 14 7 6 -1.</_>
        <_>
          0 17 7 3 2.</_></rects>
      <tilted>0</tilted></_>
    <_>
      <rects>
        <_>
          0 15 20 5 -1.</_>
        <_>
          5 15 10 5 2.</_></rects>
      <tilted>0</tilted></_>
    <_>
      <rects>
        <_>
          5 10 1 3 -1.</_>
        <_>
          5 11 1 1 3.</_></rects>
      <tilted>0</tilted></_>
    <_>
      <rects>
        <_>
          6 8 3 1 -1.</_>
        <_>
          7 8 1 1 3.</_></rects>
      <tilted>0</tilted></_>
    <_>
      <rects>
        <_>
          7 6 3 1 -1.</_>
        <_>
          8 6 1 1 3.</_></rects>
      <tilted>0</tilted></_>
    <_>
      <rects>
        <_>
          7 9 6 3 -1.</_>
        <_>
          9 10 2 1 9.</_></rects>
      <tilted>0</tilted></_>
    <_>
      <rects>
        <_>
          7 13 3 1 -1.</_>
        <_>
          8 13 1 1 3.</_></rects>
      <tilted>0</tilted></_>
    <_>
      <rects>
        <_>
          8 1 12 6 -1.</_>
        <_>
          11 4 6 6 2.</_></rects>
      <tilted>1</tilted></_>
    <_>
      <rects>
        <_>
          9 7 3 3 -1.</_>
        <_>
          10 8 1 1 9.</_></rects>
      <tilted>0</tilted></_>
    <_>
      <rects>
        <_>
          9 12 3 3 -1.</_>
        <_>
          10 13 1 1 9.</_></rects>
      <tilted>0</tilted></_>
    <_>
      <rects>
        <_>
          10 5 3 1 -1.</_>
        <_>
          11 5 1 1 3.</_></rects>
      <tilted>0</tilted></_>
    <_>
      <rects>
        <_>
          10 7 2 2 -1.</_>
        <_>
          10 7 1 1 2.</_>
        <_>
          11 8 1 1 2.</_></rects>
      <tilted>0</tilted></_>
    <_>
      <rects>
        <_>
          11 13 3 1 -1.</_>
        <_>
          12 13 1 1 3.</_></rects>
      <tilted>0</tilted></_>
    <_>
      <rects>
        <_>
          12 0 8 6 -1.</_>
        <_>
          12 3 8 3 2.</_></rects>
      <tilted>0</tilted></_>
    <_>
      <rects>
        <_>
          13 9 1 3 -1.</_>
        <_>
          13 10 1 1 3.</_></rects>
      <tilted>0</tilted></_>
    <_>
      <rects>
        <_>
          13 10 1 3 -1.</_>
        <_>
          13 11 1 1 3.</_></rects>
      <tilted>0</tilted></_>
    <_>
      <rects>
        <_>
          16 0 4 1 -1.</_>
        <_>
          18 0 2 1 2.</_></rects>
      <tilted>0</tilted></_>
    <_>
      <rects>
        <_>
          17 0 2 1 -1.</_>
        <_>
          18 0 1 1 2.</_></rects>
      <tilted>0</tilted></_>
    <_>
      <rects>
        <_>
          17 0 3 14 -1.</_>
        <_>
          18 1 1 14 3.</_></rects>
      <tilted>1</tilted></_></features></cascade>
</opencv_storage>
