<?xml version="1.0"?>
<opencv_storage>
<cascade>
  <stageType>BOOST</stageType>
  <featureType>HAAR</featureType>
  <height>20</height>
  <width>20</width>
  <stageParams>
    <boostType>GAB</boostType>
    <minHitRate>9.9900001287460327e-01</minHitRate>
    <maxFalseAlarm>5.0000000745058060e-02</maxFalseAlarm>
    <weightTrimRate>9.4999999999999996e-01</weightTrimRate>
    <maxDepth>1</maxDepth>
    <maxWeakCount>100</maxWeakCount></stageParams>
  <featureParams>
    <maxCatCount>0</maxCatCount>
    <featSize>1</featSize>
    <mode>ALL</mode></featureParams>
  <stageNum>3</stageNum>
  <stages>
    <!-- stage 0 -->
    <_>
      <maxWeakCount>6</maxWeakCount>
      <stageThreshold>-1.0142650604248047e+00</stageThreshold>
      <weakClassifiers>
        <_>
          <internalNodes>
            0 -1 6 3.8573425263166428e-03</internalNodes>
          <leafValues>
            -6.2869197130203247e-01 9.1411042213439941e-01</leafValues></_>
        <_>
          <internalNodes>
            0 -1 12 2.2321324795484543e-03</internalNodes>
          <leafValues>
            -6.1703348159790039e-01 8.5097074508666992e-01</leafValues></_>
        <_>
          <internalNodes>
            0 -1 1 1.9786603748798370e-02</internalNodes>
          <leafValues>
            -9.0572583675384521e-01 5.5692625045776367e-01</leafValues></_>
        <_>
          <internalNodes>
            0 -1 14 -2.4168884381651878e-02</internalNodes>
          <leafValues>
            9.8783516883850098e-01 -5.0702893733978271e-01</leafValues></_>
        <_>
          <internalNodes>
            0 -1 8 -1.7736095935106277e-02</internalNodes>
          <leafValues>
            9.8987627029418945e-01 -4.7385665774345398e-01</leafValues></_>
        <_>
          <internalNodes>
            0 -1 15 2.2016018629074097e-02</internalNodes>
          <leafValues>
            -8.7129777669906616e-01 6.2320774793624878e-01</leafValues></_></weakClassifiers></_>
    <!-- stage 1 -->
    <_>
      <maxWeakCount>6</maxWeakCount>
      <stageThreshold>-1.0739786624908447e+00</stageThreshold>
      <weakClassifiers>
        <_>
          <internalNodes>
            0 -1 11 1.6517328098416328e-02</internalNodes>
          <leafValues>
            -6.0975611209869385e-01 8.2159626483917236e-01</leafValues></_>
        <_>
          <internalNodes>
            0 -1 5 4.0013985708355904e-03</internalNodes>
          <leafValues>
            -5.4561829566955566e-01 8.6139118671417236e-01</leafValues></_>
        <_>
          <internalNodes>
            0 -1 10 -2.1915849298238754e-02</internalNodes>
          <leafValues>
            -9.5457595586776733e-01 4.9084284901618958e-01</leafValues></_>
        <_>
          <internalNodes>
            0 -1 13 -2.4287527427077293e-02</internalNodes>
          <leafValues>
            9.5595020055770874e-01 -5.1425820589065552e-01</leafValues></_>
        <_>
          <internalNodes>
            0 -1 9 -6.5255002118647099e-03</internalNodes>
          <leafValues>
            9.5067340135574341e-01 -5.1889151334762573e-01</leafValues></_>
        <_>
          <internalNodes>
            0 -1 2 3.7706743460148573e-03</internalNodes>
          <leafValues>
            -8.4650570154190063e-01 5.9658885002136230e-01</leafValues></_></weakClassifiers></_>
    <!-- stage 2 -->
    <_>
      <maxWeakCount>5</maxWeakCount>
      <stageThreshold>2.6148307323455811e-01</stageThreshold>
      <weakClassifiers>
        <_>
          <internalNodes>
            0 -1 7 4.1742059402167797e-03</internalNodes>
          <leafValues>
            -9.7167140245437622e-01 5.3013908863067627e-01</leafValues></_>
        <_>
          <internalNodes>
            0 -1 3 -6.4981225878000259e-03</internalNodes>
          <leafValues>
            8.9020282030105591e-01 -5.6169682741165161e-01</leafValues></_>
        <_>
          <internalNodes>
            0 -1 16 -3.6143737816018984e-05</internalNodes>
          <leafValues>
            -1. 5.1077812910079956e-01</leafValues></_>
        <_>
          <internalNodes>
            0 -1 0 -5.4140306019689888e-05</internalNodes>
          <leafValues>
            -1. 3.8951548933982849e-01</leafValues></_>
        <_>
          <internalNodes>
            0 -1 4 -5.5685332044959068e-03</internalNodes>
          <leafValues>
            9.9019098281860352e-01 -5.5734199285507202e-01</leafValues></_></weakClassifiers></_></stages>
  <features>
    <_>
      <rects>
        <_>
          0 0 1 2 -1.</_>
        <_>
          0 1 1 1 2.</_></rects>
      <tilted>0</tilted></_>
    <_>
      <rects>
        <_>
          0 15 20 5 -1.</_>
        <_>
          5 15 10 5 2.</_></rects>
      <tilted>0</tilted></_>
    <_>
      <rects>
        <_>
          1 12 19 8 -1.</_>
        <_>
          1 14 19 4 2.</_></rects>
      <tilted>0</tilted></_>
    <_>
      <rects>
        <_>
          5 10 1 3 -1.</_>
        <_>
          5 11 1 1 3.</_></rects>
      <tilted>0</tilted></_>
    <_>
      <rects>
        <_>
          6 6 2 2 -1.</_>
        <_>
          6 6 1 1 2.</_>
        <_>
          7 7 1 1 2.</_></rects>
      <tilted>0</tilted></_>
    <_>
      <rects>
        <_>
          6 8 3 1 -1.</_>
        <_>
          7 8 1 1 3.</_></rects>
      <tilted>0</tilted></_>
    <_>
      <rects>
        <_>
          7 6 3 1 -1.</_>
        <_>
          8 6 1 1 3.</_></rects>
      <tilted>0</tilted></_>
    <_>
      <rects>
        <_>
          8 0 12 20 -1.</_>
        <_>
          11 0 6 20 2.</_></rects>
      <tilted>0</tilted></_>
    <_>
      <rects>
        <_>
          8 6 2 12 -1.</_>
        <_>
          8 6 1 6 2.</_>
        <_>
          9 12 1 6 2.</_></rects>
      <tilted>0</tilted></_>
    <_>
      <rects>
        <_>
          8 14 3 1 -1.</_>
        <_>
          9 14 1 1 3.</_></rects>
      <tilted>0</tilted></_>
    <_>
      <rects>
        <_>
          9 2 8 7 -1.</_>
        <_>
          9 2 4 7 2.</_></rects>
      <tilted>1</tilted></_>
    <_>
      <rects>
        <_>
          9 7 3 3 -1.</_>
        <_>
          10 8 1 1 9.</_></rects>
      <tilted>0</tilted></_>
    <_>
      <rects>
        <_>
          9 10 1 2 -1.</_>
        <_>
          9 11 1 1 2.</_></rects>
      <tilted>0</tilted></_>
    <_>
      <rects>
        <_>
          9 12 3 3 -1.</_>
        <_>
          10 13 1 1 9.</_></rects>
      <tilted>0</tilted></_>
    <_>
      <rects>
        <_>
          12 7 3 3 -1.</_>
        <_>
          13 8 1 1 9.</_></rects>
      <tilted>0</tilted></_>
    <_>
      <rects>
        <_>
          15 0 5 20 -1.</_>
        <_>
          15 5 5 10 2.</_></rects>
      <tilted>0</tilted></_>
    <_>
      <rects>
        <_>
          19 0 1 4 -1.</_>
        <_>
          19 2 1 2 2.</_></rects>
      <tilted>0</tilted></_></features></cascade>
</opencv_storage>
