<?xml version="1.0"?>
<opencv_storage>
<stage1>
  <maxWeakCount>6</maxWeakCount>
  <stageThreshold>-1.0739786624908447e+00</stageThreshold>
  <weakClassifiers>
    <_>
      <internalNodes>
        0 -1 84176 1.6517328098416328e-02</internalNodes>
      <leafValues>
        -6.0975611209869385e-01 8.2159626483917236e-01</leafValues></_>
    <_>
      <internalNodes>
        0 -1 61276 4.0013985708355904e-03</internalNodes>
      <leafValues>
        -5.4561829566955566e-01 8.6139118671417236e-01</leafValues></_>
    <_>
      <internalNodes>
        0 -1 81746 -2.1915849298238754e-02</internalNodes>
      <leafValues>
        -9.5457595586776733e-01 4.9084284901618958e-01</leafValues></_>
    <_>
      <internalNodes>
        0 -1 86004 -2.4287527427077293e-02</internalNodes>
      <leafValues>
        9.5595020055770874e-01 -5.1425820589065552e-01</leafValues></_>
    <_>
      <internalNodes>
        0 -1 79424 -6.5255002118647099e-03</internalNodes>
      <leafValues>
        9.5067340135574341e-01 -5.1889151334762573e-01</leafValues></_>
    <_>
      <internalNodes>
        0 -1 18216 3.7706743460148573e-03</internalNodes>
      <leafValues>
        -8.4650570154190063e-01 5.9658885002136230e-01</leafValues></_></weakClassifiers></stage1>
</opencv_storage>
