<?xml version="1.0"?>
<opencv_storage>
<stage0>
  <maxWeakCount>6</maxWeakCount>
  <stageThreshold>-1.0142650604248047e+00</stageThreshold>
  <weakClassifiers>
    <_>
      <internalNodes>
        0 -1 68325 3.8573425263166428e-03</internalNodes>
      <leafValues>
        -6.2869197130203247e-01 9.1411042213439941e-01</leafValues></_>
    <_>
      <internalNodes>
        0 -1 85394 2.2321324795484543e-03</internalNodes>
      <leafValues>
        -6.1703348159790039e-01 8.5097074508666992e-01</leafValues></_>
    <_>
      <internalNodes>
        0 -1 9444 1.9786603748798370e-02</internalNodes>
      <leafValues>
        -9.0572583675384521e-01 5.5692625045776367e-01</leafValues></_>
    <_>
      <internalNodes>
        0 -1 103371 -2.4168884381651878e-02</internalNodes>
      <leafValues>
        9.8783516883850098e-01 -5.0702893733978271e-01</leafValues></_>
    <_>
      <internalNodes>
        0 -1 76353 -1.7736095935106277e-02</internalNodes>
      <leafValues>
        9.8987627029418945e-01 -4.7385665774345398e-01</leafValues></_>
    <_>
      <internalNodes>
        0 -1 115249 2.2016018629074097e-02</internalNodes>
      <leafValues>
        -8.7129777669906616e-01 6.2320774793624878e-01</leafValues></_></weakClassifiers></stage0>
</opencv_storage>
