<?xml version="1.0"?>
<opencv_storage>
<stage0>
  <maxWeakCount>6</maxWeakCount>
  <stageThreshold>-9.7006809711456299e-01</stageThreshold>
  <weakClassifiers>
    <_>
      <internalNodes>
        0 -1 68325 3.8130518514662981e-03</internalNodes>
      <leafValues>
        -6.2594777345657349e-01 9.1389912366867065e-01</leafValues></_>
    <_>
      <internalNodes>
        0 -1 85394 2.2995444014668465e-03</internalNodes>
      <leafValues>
        -6.3905614614486694e-01 8.5757362842559814e-01</leafValues></_>
    <_>
      <internalNodes>
        0 -1 424 1.8587950617074966e-02</internalNodes>
      <leafValues>
        -9.4600760936737061e-01 5.5000793933868408e-01</leafValues></_>
    <_>
      <internalNodes>
        0 -1 69940 -1.5883689746260643e-02</internalNodes>
      <leafValues>
        5.9133023023605347e-01 -7.2843146324157715e-01</leafValues></_>
    <_>
      <internalNodes>
        0 -1 109350 -2.1787170320749283e-02</internalNodes>
      <leafValues>
        9.5293641090393066e-01 -4.6916419267654419e-01</leafValues></_>
    <_>
      <internalNodes>
        0 -1 76306 -1.0484902188181877e-02</internalNodes>
      <leafValues>
        9.9409621953964233e-01 -4.7957712411880493e-01</leafValues></_></weakClassifiers></stage0>
</opencv_storage>
