<?xml version="1.0"?>
<opencv_storage>
<stage0>
  <maxWeakCount>7</maxWeakCount>
  <stageThreshold>-4.8295781016349792e-01</stageThreshold>
  <weakClassifiers>
    <_>
      <internalNodes>
        0 -1 84176 1.3580949977040291e-02</internalNodes>
      <leafValues>
        -6.6844922304153442e-01 8.5421413183212280e-01</leafValues></_>
    <_>
      <internalNodes>
        0 -1 61276 3.8370818365365267e-03</internalNodes>
      <leafValues>
        -5.7358914613723755e-01 9.4994372129440308e-01</leafValues></_>
    <_>
      <internalNodes>
        0 -1 69940 -1.9260253757238388e-02</internalNodes>
      <leafValues>
        7.9423856735229492e-01 -6.2850028276443481e-01</leafValues></_>
    <_>
      <internalNodes>
        0 -1 9444 1.2006733566522598e-02</internalNodes>
      <leafValues>
        -9.5511293411254883e-01 5.0223779678344727e-01</leafValues></_>
    <_>
      <internalNodes>
        0 -1 86004 -2.4373207241296768e-02</internalNodes>
      <leafValues>
        9.8303133249282837e-01 -4.8522499203681946e-01</leafValues></_>
    <_>
      <internalNodes>
        0 -1 71252 4.0934188291430473e-03</internalNodes>
      <leafValues>
        -5.9627640247344971e-01 9.3172955513000488e-01</leafValues></_>
    <_>
      <internalNodes>
        0 -1 118529 2.0196841433062218e-05</internalNodes>
      <leafValues>
        5.4410552978515625e-01 -1.</leafValues></_></weakClassifiers></stage0>
</opencv_storage>
