<?xml version="1.0"?>
<opencv_storage>
<stage1>
  <maxWeakCount>6</maxWeakCount>
  <stageThreshold>-4.2691186070442200e-01</stageThreshold>
  <weakClassifiers>
    <_>
      <internalNodes>
        0 -1 93031 3.8088320288807154e-03</internalNodes>
      <leafValues>
        -5.8983051776885986e-01 8.4878051280975342e-01</leafValues></_>
    <_>
      <internalNodes>
        0 -1 52224 -6.3132122159004211e-03</internalNodes>
      <leafValues>
        9.7125345468521118e-01 -4.2310675978660583e-01</leafValues></_>
    <_>
      <internalNodes>
        0 -1 9206 -8.5630714893341064e-03</internalNodes>
      <leafValues>
        5.5851590633392334e-01 -9.1289144754409790e-01</leafValues></_>
    <_>
      <internalNodes>
        0 -1 54129 2.0018933340907097e-02</internalNodes>
      <leafValues>
        -4.8038011789321899e-01 9.0227234363555908e-01</leafValues></_>
    <_>
      <internalNodes>
        0 -1 109101 -9.7859688103199005e-03</internalNodes>
      <leafValues>
        9.9469834566116333e-01 -3.8844427466392517e-01</leafValues></_>
    <_>
      <internalNodes>
        0 -1 76846 5.9324889443814754e-03</internalNodes>
      <leafValues>
        -4.2169117927551270e-01 9.7338104248046875e-01</leafValues></_></weakClassifiers></stage1>
</opencv_storage>
