<?xml version="1.0"?>
<opencv_storage>
<stage2>
  <maxWeakCount>7</maxWeakCount>
  <stageThreshold>-4.2178767919540405e-01</stageThreshold>
  <weakClassifiers>
    <_>
      <internalNodes>
        0 -1 121524 2.1243598894216120e-05</internalNodes>
      <leafValues>
        5.2905195951461792e-01 -1.</leafValues></_>
    <_>
      <internalNodes>
        0 -1 53715 -6.0901809483766556e-03</internalNodes>
      <leafValues>
        9.4532757997512817e-01 -5.8846652507781982e-01</leafValues></_>
    <_>
      <internalNodes>
        0 -1 73204 3.7752687931060791e-02</internalNodes>
      <leafValues>
        5.6912356615066528e-01 -9.0740895271301270e-01</leafValues></_>
    <_>
      <internalNodes>
        0 -1 9225 -9.7295269370079041e-03</internalNodes>
      <leafValues>
        5.0995719432830811e-01 -9.1078448295593262e-01</leafValues></_>
    <_>
      <internalNodes>
        0 -1 99280 -6.0670785605907440e-03</internalNodes>
      <leafValues>
        8.6122661828994751e-01 -5.2103352546691895e-01</leafValues></_>
    <_>
      <internalNodes>
        0 -1 91022 4.2178961448371410e-03</internalNodes>
      <leafValues>
        -4.8243525624275208e-01 9.8100686073303223e-01</leafValues></_>
    <_>
      <internalNodes>
        0 -1 121633 -4.5584350824356079e-02</internalNodes>
      <leafValues>
        9.8275655508041382e-01 -4.2389112710952759e-01</leafValues></_></weakClassifiers></stage2>
</opencv_storage>
