<?xml version="1.0"?>
<opencv_storage>
<stage2>
  <maxWeakCount>7</maxWeakCount>
  <stageThreshold>-7.5536668300628662e-02</stageThreshold>
  <weakClassifiers>
    <_>
      <internalNodes>
        0 -1 93031 4.3716598302125931e-03</internalNodes>
      <leafValues>
        -5.5121952295303345e-01 8.8051950931549072e-01</leafValues></_>
    <_>
      <internalNodes>
        0 -1 72552 -3.5580299794673920e-02</internalNodes>
      <leafValues>
        -1. 4.8565095663070679e-01</leafValues></_>
    <_>
      <internalNodes>
        0 -1 92797 -5.3025996312499046e-03</internalNodes>
      <leafValues>
        9.8187416791915894e-01 -5.2225679159164429e-01</leafValues></_>
    <_>
      <internalNodes>
        0 -1 62206 -6.4286887645721436e-03</internalNodes>
      <leafValues>
        9.5138007402420044e-01 -4.9137946963310242e-01</leafValues></_>
    <_>
      <internalNodes>
        0 -1 121690 -2.5064658984774724e-05</internalNodes>
      <leafValues>
        -9.8818576335906982e-01 5.6261003017425537e-01</leafValues></_>
    <_>
      <internalNodes>
        0 -1 116031 -5.1012519747018814e-02</internalNodes>
      <leafValues>
        9.8309570550918579e-01 -4.7907590866088867e-01</leafValues></_>
    <_>
      <internalNodes>
        0 -1 78604 3.9890171028673649e-03</internalNodes>
      <leafValues>
        -5.1160496473312378e-01 9.5332944393157959e-01</leafValues></_></weakClassifiers></stage2>
</opencv_storage>
